{"frameRate":24,"name":"lod_screen","version":"5.5","compatibleVersion":"5.5","armature":[{"type":"Armature","frameRate":24,"name":"Armature","aabb":{"x":-960,"y":-540,"width":1920,"height":1080},"bone":[{"name":"root"},{"length":329,"name":"Paint_Layer_50","parent":"root","transform":{"x":-581.3,"y":287.5,"skX":-91.2699,"skY":-91.2699}},{"length":224,"name":"Paint_Layer_23","parent":"root","transform":{"x":102.05,"y":-306.15,"skX":-175.0744,"skY":-175.0744}},{"length":117,"name":"tatti","parent":"root","transform":{"x":-833.4,"y":-356.4,"skX":-72.7505,"skY":-72.7505}},{"length":39,"name":"star_big7","parent":"root","transform":{"x":360.1,"y":-112.95,"skX":-90.8604,"skY":-90.8604}},{"length":43,"name":"star_big5","parent":"root","transform":{"x":799.75,"y":-381.95,"skX":-88.8741,"skY":-88.8741}},{"length":39,"name":"star_big2","parent":"root","transform":{"x":239,"y":405.7,"skX":-88.9039,"skY":-88.9039}},{"length":144,"name":"teee","parent":"root","transform":{"x":417.15,"y":-330.5,"skX":18.8807,"skY":18.8807}},{"length":39,"name":"star_big4","parent":"root","transform":{"x":-317.05,"y":-288.6,"skX":-90.7252,"skY":-90.7252}},{"length":31,"name":"star_big","parent":"root","transform":{"x":792.1,"y":465.2,"skX":-89.5387,"skY":-89.5387}},{"length":147,"name":"logo","parent":"root","transform":{"x":11.95,"y":85.8,"skX":-88.9136,"skY":-88.9136}},{"length":225,"name":"bak","parent":"root","transform":{"x":762.25,"y":-285.15,"skX":-89.6566,"skY":-89.6566}},{"length":51,"name":"bak_ef2","parent":"root","transform":{"x":954.6,"y":-482.65,"skX":-90,"skY":-90}},{"length":44,"name":"stars_small2","parent":"root","transform":{"x":872.45,"y":495.35,"skX":-88.336,"skY":-88.336}},{"length":62,"name":"stars_normal","parent":"root","transform":{"x":704.45,"y":515.9,"skX":-91.1061,"skY":-91.1061}},{"length":148,"name":"Paint_Layer_45","parent":"root","transform":{"x":550.8,"y":298.45,"skX":-80.9584,"skY":-80.9584}},{"length":36,"name":"star_big6","parent":"root","transform":{"x":260.25,"y":-448.55,"skX":-90.5486,"skY":-90.5486}},{"length":109,"name":"bak_ef1","parent":"root","transform":{"x":896,"y":-422.1,"skX":-90.3415,"skY":-90.3415}},{"length":33,"name":"star_big3","parent":"root","transform":{"x":-859.6,"y":418,"skX":-90.5146,"skY":-90.5146}},{"length":49,"name":"stars_small3","parent":"root","transform":{"x":777.25,"y":506.8,"skX":-89.4183,"skY":-89.4183}},{"length":62,"name":"start","parent":"root","transform":{"x":7.6,"y":400.05,"skX":-89.2613,"skY":-89.2613}},{"length":43,"name":"stars_small","parent":"root","transform":{"x":934.25,"y":518.4,"skX":-88.4804,"skY":-88.4804}},{"length":85,"name":"Layer2","parent":"Paint_Layer_50","transform":{"x":-81.6599,"y":184.5355,"skX":141.7428,"skY":141.7428}},{"length":283,"name":"Paint_Layer_501","parent":"Paint_Layer_50","transform":{"x":352.3054,"y":3.659,"skX":10.5929,"skY":10.5929}},{"length":73,"name":"Layer1","parent":"Paint_Layer_50","transform":{"x":261.3529,"y":219.3462,"skX":120.1214,"skY":120.1214}},{"length":82,"name":"Paint_Layer_54","parent":"Paint_Layer_50","transform":{"x":-51.8007,"y":-187.7942,"skX":166.0209,"skY":166.0209}},{"length":253,"name":"splash","parent":"logo","transform":{"x":-0.1682,"y":6.9544,"skX":88.6201,"skY":88.6201}},{"length":91,"name":"Paint_Layer_41","parent":"Paint_Layer_45","transform":{"x":156.3979,"y":59.2074,"skX":-11.8511,"skY":-11.8511}},{"length":56,"name":"Paint_Layer_46","parent":"Paint_Layer_45","transform":{"x":164.3207,"y":-37.9955,"skX":2.0997,"skY":2.0997}},{"length":285,"name":"Paint_Layer_29","parent":"Paint_Layer_45","transform":{"x":198.8958,"y":-76.2038,"skX":4.2023,"skY":4.2023}},{"length":54,"name":"Paint_Layer_42","parent":"Paint_Layer_45","transform":{"x":-42.842,"y":-3.5615,"skX":-177.6387,"skY":-177.6387}},{"length":107,"name":"flwr_2","parent":"Paint_Layer_501","transform":{"x":282.1149,"y":1.1628,"skX":40.5718,"skY":40.5718}},{"length":65,"name":"eye_obvodka","parent":"Paint_Layer_501","transform":{"x":111.4554,"y":-118.6227,"skX":-7.4544,"skY":-7.4544}},{"length":77,"name":"mouth","parent":"Paint_Layer_501","transform":{"x":132.8084,"y":17.6178,"skX":-3.6856,"skY":-3.6856}},{"length":93,"name":"Paint_Layer_411","parent":"Paint_Layer_41","transform":{"x":110.0411,"y":-4.2616,"skX":-11.1299,"skY":-11.1299}},{"length":10,"name":"eye_11_r_4","parent":"Paint_Layer_501","transform":{"x":186.4471,"y":148.0512,"skX":-5.4907,"skY":-5.4907}},{"length":96,"name":"flwr_1","parent":"Paint_Layer_501","transform":{"x":297.0425,"y":11.2274,"skX":-62.9097,"skY":-62.9097}},{"length":71,"name":"Paint_Layer_412","parent":"Paint_Layer_411","transform":{"x":104.9975,"y":-5.0041,"skX":-27.0276,"skY":-27.0276}},{"length":9,"name":"eye_r","parent":"Paint_Layer_411","transform":{"x":103.1068,"y":31.4644,"skX":-2.0865,"skY":-2.0865}},{"length":8,"name":"eye_l","parent":"Paint_Layer_411","transform":{"x":54.0293,"y":-54.7469,"skX":-34.514,"skY":-34.514}},{"length":7,"name":"eye_11_l_1","parent":"eye_obvodka","transform":{"x":54.5972,"y":8.2241,"skX":5.3057,"skY":5.3057}},{"length":22,"name":"eye_bk","parent":"eye_obvodka","transform":{"x":17.0683,"y":12.5501,"skX":-4.7498,"skY":-4.7498}},{"length":26,"name":"Paint_Layer_39","parent":"Paint_Layer_411","transform":{"x":42.7716,"y":7.422,"skX":-7.5049,"skY":-7.5049}}],"slot":[{"name":"bak","parent":"bak"},{"name":"bak_ef1","parent":"bak_ef1"},{"name":"bak_ef2","parent":"bak_ef2"},{"name":"stars_normal","parent":"stars_normal"},{"name":"stars_small","parent":"stars_small"},{"name":"stars_small2","parent":"stars_small2"},{"name":"stars_small3","parent":"stars_small3"},{"name":"star_big","parent":"star_big"},{"name":"star_big2","parent":"star_big2"},{"name":"star_big3","parent":"star_big3"},{"name":"star_big4","parent":"star_big4"},{"name":"star_big5","parent":"star_big5"},{"name":"star_big6","parent":"star_big6"},{"name":"star_big7","parent":"star_big7"},{"name":"tatti","parent":"tatti"},{"name":"Paint_Layer_23","parent":"Paint_Layer_23"},{"name":"Paint_Layer_42","parent":"Paint_Layer_42"},{"name":"Paint_Layer_46","parent":"Paint_Layer_46"},{"name":"Paint_Layer_41","parent":"Paint_Layer_412"},{"name":"Paint_Layer_45","parent":"Paint_Layer_45"},{"name":"Paint_Layer_39","parent":"Paint_Layer_39"},{"name":"eye_r","parent":"eye_r"},{"name":"eye_l","parent":"eye_l"},{"name":"Paint_Layer_29","parent":"Paint_Layer_29"},{"name":"flwr_1","parent":"flwr_1"},{"name":"flwr_2","parent":"flwr_2"},{"name":"Paint_Layer_50","parent":"Paint_Layer_501"},{"name":"mouth","parent":"mouth"},{"name":"eye_bk","parent":"eye_bk"},{"displayIndex":1,"name":"eye_11_r_4","parent":"eye_11_r_4"},{"name":"eye_11_l_1","parent":"eye_11_l_1"},{"name":"eye_obvodka","parent":"eye_obvodka"},{"name":"Paint_Layer_54","parent":"Paint_Layer_54"},{"name":"Layer2","parent":"Layer2"},{"name":"Layer1","parent":"Layer1"},{"name":"splash","parent":"splash"},{"name":"logo","parent":"logo"},{"name":"start","parent":"start"},{"name":"teee","parent":"teee"}],"skin":[{"slot":[{"name":"Paint_Layer_29","display":[{"name":"main2_ready/Paint_Layer_29","transform":{"x":138.12,"y":69.4,"skX":76.76,"skY":76.76}}]},{"name":"flwr_2","display":[{"name":"main2_ready/flwr_2","transform":{"x":46.31,"y":-2.83,"skX":40.11,"skY":40.11}}]},{"name":"stars_normal","display":[{"name":"main2_ready/stars_normal","transform":{"x":532.09,"y":-703.81,"skX":91.11,"skY":91.11}}]},{"name":"star_big5","display":[{"name":"main2_ready/star_big5","transform":{"x":5.59,"y":2.14,"skX":88.87,"skY":88.87}}]},{"name":"Paint_Layer_42","display":[{"name":"main2_ready/Paint_Layer_42","transform":{"x":-10.38,"y":0.11,"skX":-101.4,"skY":-101.4}}]},{"name":"star_big7","display":[{"name":"main2_ready/star_big7","transform":{"x":4.01,"y":2.46,"skX":90.86,"skY":90.86}}]},{"name":"start","display":[{"name":"main2_ready/start","transform":{"x":-17.81,"y":11.13,"skX":89.26,"skY":89.26}}]},{"name":"star_big2","display":[{"name":"main2_ready/star_big2","transform":{"x":2.77,"y":3.45,"skX":88.9,"skY":88.9}}]},{"name":"star_big3","display":[{"name":"main2_ready/star_big3","transform":{"x":2.48,"y":2.12,"skX":90.51,"skY":90.51}}]},{"name":"Paint_Layer_54","display":[{"name":"main2_ready/Paint_Layer_54","transform":{"x":35.94,"y":-0.46,"skX":-74.75,"skY":-74.75}}]},{"name":"Paint_Layer_45","display":[{"name":"main2_ready/Paint_Layer_45","transform":{"x":92.22,"y":10.34,"skX":80.96,"skY":80.96}}]},{"name":"star_big4","display":[{"name":"main2_ready/star_big4","transform":{"x":4.38,"y":1.61,"skX":90.73,"skY":90.73}}]},{"name":"flwr_1","display":[{"name":"main2_ready/flwr_1","transform":{"x":38.66,"y":-1.92,"skX":143.59,"skY":143.59}}]},{"name":"eye_bk","display":[{"name":"main2_ready/eye_bk","transform":{"x":-4.65,"y":129.28,"skX":92.88,"skY":92.88}}]},{"name":"stars_small3","display":[{"name":"main2_ready/stars_small3","transform":{"x":508.53,"y":-817.45,"skX":89.42,"skY":89.42}}]},{"name":"stars_small2","display":[{"name":"main2_ready/stars_small2","transform":{"x":482.89,"y":-900.85,"skX":88.34,"skY":88.34}}]},{"name":"Paint_Layer_39","display":[{"name":"main2_ready/Paint_Layer_39","transform":{"x":11.07,"y":-2.74,"skX":111.44,"skY":111.44}}]},{"name":"eye_l","display":[{"name":"main2_ready/eye_l","transform":{"x":2.43,"y":-0.35,"skX":138.45,"skY":138.45}}]},{"name":"logo","display":[{"name":"main2_ready/logo","transform":{"x":-1.11,"y":4.57,"skX":88.91,"skY":88.91}}]},{"name":"tatti","display":[{"name":"main2_ready/tatti","transform":{"x":50.44,"y":-11.58,"skX":72.75,"skY":72.75}}]},{"name":"mouth","display":[{"name":"main2_ready/mouth","transform":{"x":22.26,"y":-13.7,"skX":84.36,"skY":84.36}}]},{"name":"stars_small","display":[{"name":"main2_ready/stars_small","transform":{"x":495.7,"y":-956.73,"skX":88.48,"skY":88.48}}]},{"name":"Paint_Layer_23","display":[{"name":"main2_ready/Paint_Layer_23","transform":{"x":80.75,"y":-18.65,"skX":175.07,"skY":175.07}}]},{"name":"Paint_Layer_46","display":[{"name":"main2_ready/Paint_Layer_46","transform":{"x":0.67,"y":33.4,"skX":78.86,"skY":78.86}}]},{"name":"bak_ef2","display":[{"name":"main2_ready/bak_ef2","transform":{"x":-482.65,"y":-954.6,"skX":90,"skY":90}}]},{"name":"bak","display":[{"name":"main2_ready/bak","transform":{"x":-289.71,"y":-760.53,"skX":89.66,"skY":89.66}}]},{"name":"Paint_Layer_41","display":[{"type":"mesh","name":"main2_ready/Paint_Layer_41","width":241,"height":322,"vertices":[517.6,171.6,614.6,186,743,186,743,169.9,729.9,151.65,713.85,140,705.55,131.65,697.75,120.6,687.8,106.15,683.35,89.55,678.9,64.6,673.35,45.75,671.7,28,667.85,3.6,665.6,-11.4,665.05,-30.25,665.05,-50.75,663.4,-74.05,662.85,-89,658.95,-116.15,649.55,-127.25,635.1,-136,617.4,-136,589.65,-136,565.8,-136,550.85,-131.15,533.65,-122.8,521.45,-116.15,512.05,-107.3,502.05,-94,502.05,-77.9,502.05,-50.2,502.05,-27.45,507.65,-15.25,514.8,-1.95,523.1,10.8,533.65,23,539.75,29.1,548.05,40.2,553.6,49.05,560.25,59.05,565.8,70.1,568.6,79.55,568.6,90.65,567.5,103.95,564.7,113.9,559.7,122.8,555.3,130,548.65,137.2,543.1,144.4,533.65,152.75,523.1,161.6],"uvs":[0.06473,0.95528,0.46722,1,1,1,1,0.95,0.94564,0.89332,0.87905,0.85714,0.84461,0.83121,0.81224,0.79689,0.77095,0.75202,0.75249,0.70047,0.73402,0.62298,0.711,0.56444,0.70415,0.50932,0.68817,0.43354,0.67884,0.38696,0.67656,0.32842,0.67656,0.26475,0.66971,0.19239,0.66743,0.14596,0.65124,0.06165,0.61224,0.02717,0.55228,0,0.47884,0,0.36369,0,0.26473,0,0.2027,0.01506,0.13133,0.04099,0.08071,0.06165,0.0417,0.08913,0.00021,0.13043,0.00021,0.18043,0.00021,0.26646,0.00021,0.33711,0.02344,0.375,0.05311,0.4163,0.08755,0.4559,0.13133,0.49379,0.15664,0.51273,0.19108,0.5472,0.21411,0.57469,0.2417,0.60575,0.26473,0.64006,0.27635,0.66941,0.27635,0.70388,0.27178,0.74519,0.26017,0.77609,0.23942,0.80373,0.22116,0.82609,0.19357,0.84845,0.17054,0.87081,0.13133,0.89674,0.08755,0.92422],"triangles":[4,5,2,5,1,2,4,2,3,6,1,5,7,1,6,8,1,7,9,44,8,44,1,8,44,45,1,10,43,9,43,44,9,11,42,10,42,43,10,12,41,11,41,42,11,13,40,12,40,41,12,14,38,13,38,39,13,39,40,13,16,34,15,15,37,14,37,38,14,17,23,16,23,31,16,31,34,16,34,35,15,35,36,15,36,37,15,19,20,18,20,22,18,18,22,17,22,23,17,31,33,34,25,31,23,21,22,20,30,31,26,26,31,25,24,25,23,46,47,1,45,46,1,47,48,1,48,49,1,49,50,1,50,0,1,28,30,27,27,30,26,31,32,33,51,0,50,29,30,28],"weights":[2,27,0.667065,34,0.332935,2,27,0.933981,34,0.066019,2,27,0.725948,34,0.274052,2,27,0.711526,34,0.288474,2,27,0.712295,34,0.287705,2,27,0.727564,34,0.272436,2,27,0.731245,34,0.268755,2,27,0.725942,34,0.274058,3,27,0.672961,34,0.267072,37,0.059967,3,27,0.63042,34,0.310494,37,0.059086,3,27,0.549503,34,0.389711,37,0.060786,3,27,0.489203,34,0.446696,37,0.064101,3,27,0.413138,34,0.494277,37,0.092585,3,27,0.297015,34,0.542368,37,0.160617,3,27,0.232269,34,0.549926,37,0.217804,3,27,0.175476,34,0.524321,37,0.300203,3,27,0.135349,34,0.489698,37,0.374954,3,27,0.108319,34,0.471348,37,0.420333,3,27,0.104858,34,0.456744,37,0.438398,3,27,0.107485,37,0.457574,34,0.434941,3,27,0.101484,37,0.477807,34,0.420709,3,27,0.090161,37,0.519074,34,0.390765,3,27,0.071345,37,0.585936,34,0.34272,2,37,0.776247,34,0.223753,2,37,0.904953,34,0.095047,2,37,0.957791,34,0.042209,2,37,0.968645,34,0.031355,2,37,0.940945,34,0.059055,2,37,0.902431,34,0.097569,2,37,0.838668,34,0.161332,3,27,0.063648,37,0.727195,34,0.209157,3,27,0.108948,37,0.575032,34,0.316021,3,27,0.155594,37,0.478132,34,0.366274,3,27,0.179931,37,0.436813,34,0.383257,3,27,0.209208,34,0.398675,37,0.392117,3,27,0.240227,34,0.412022,37,0.347751,3,27,0.275935,34,0.43017,37,0.293894,3,27,0.297069,34,0.441187,37,0.261745,3,27,0.339601,34,0.451965,37,0.208435,3,27,0.374054,34,0.454267,37,0.171679,3,27,0.410758,34,0.454741,37,0.134501,3,27,0.447843,34,0.444484,37,0.107674,3,27,0.485319,34,0.4195,37,0.095181,3,27,0.526726,34,0.382903,37,0.09037,3,27,0.572212,34,0.340223,37,0.087565,3,27,0.594851,34,0.316082,37,0.089066,3,27,0.601788,34,0.303742,37,0.09447,3,27,0.604891,34,0.296071,37,0.099038,3,27,0.598878,34,0.294205,37,0.106917,2,27,0.672885,34,0.327115,2,27,0.667684,34,0.332316,2,27,0.661881,34,0.338119],"slotPose":[1,0,0,1,0,0],"bonePose":[27,-0.049014,-0.998798,0.998798,-0.049014,633.85,153.3,34,-0.240894,-0.970551,0.970551,-0.240894,624.2,43.6,37,-0.655624,-0.755088,0.755088,-0.655624,594.05,-57.1],"edges":[0,1,1,2,2,3,3,4,4,5,5,6,6,7,7,8,8,9,9,10,10,11,11,12,12,13,13,14,14,15,15,16,16,17,17,18,18,19,19,20,20,21,21,22,22,23,23,24,24,25,25,26,26,27,27,28,28,29,29,30,30,31,31,32,32,33,33,34,34,35,35,36,36,37,37,38,38,39,39,40,40,41,41,42,42,43,43,44,44,45,45,46,46,47,47,48,48,49,49,50,50,51,51,0],"userEdges":[]}]},{"name":"Layer2","display":[{"name":"main2_ready/Layer2","transform":{"x":28.79,"y":4.31,"skX":-50.47,"skY":-50.47}}]},{"name":"eye_r","display":[{"name":"main2_ready/eye_r","transform":{"x":4.32,"y":-0.74,"skX":106.03,"skY":106.03}}]},{"name":"star_big","display":[{"name":"main2_ready/star_big","transform":{"x":1.72,"y":2.89,"skX":89.54,"skY":89.54}}]},{"name":"Paint_Layer_50","display":[{"type":"mesh","name":"main2_ready/Paint_Layer_50","width":598,"height":771,"vertices":[-876,189.45,-871.05,235.15,-854.05,284.1,-829.8,318.3,-799.65,360.25,-779.5,376.3,-735,395.9,-681.2,404.05,-604.85,404.05,-478.8,404,-399.95,399.55,-360,389.2,-331.6,368.9,-303.2,338.4,-294.2,323.35,-282.15,295.45,-278.3,272.25,-278,240.45,-278,184.15,-286.85,135.7,-297.9,94.65,-310.35,59.2,-324.15,22.8,-338.9,-8.05,-354.35,-43.25,-368.05,-82.5,-380.35,-134.05,-384.15,-171.35,-387.95,-207.3,-392.45,-256.4,-404.1,-288.05,-424.05,-320.9,-454.85,-350.4,-481.9,-362.5,-511,-367,-586.1,-367,-608.25,-359.45,-631.15,-347.7,-651.4,-332.5,-667.7,-314.8,-679.25,-292.85,-688.95,-265.55,-694.1,-246.7,-698.55,-228.35,-703,-208.7,-708.95,-185.45,-716.35,-152.15,-730.65,-121.05,-745.55,-95.2,-764.95,-74.2,-789.25,-43.15,-821.2,3.6,-838.15,29.65,-854.9,54.3,-870.25,82.2,-876,127.8,-665.25,-39.9,-663.6,-43.6,-659.5,-44.4,-654.7,-45.25,-648,-46.2,-644.05,-46.6,-638.3,-47.7,-634.45,-48.35,-627.35,-49.6,-623.25,-49.6,-617.2,-50,-612.95,-50,-608.45,-50.15,-604.5,-50.3,-600.8,-50.55,-596.4,-50.85,-591.5,-50.95,-585.75,-50.95,-579.15,-50.55,-574.65,-50.45,-568.65,-50.45,-564.8,-50.3,-560.55,-50,-553.7,-49.2,-549.45,-48.65,-545.5,-47.95,-541.8,-47.55,-538,-46.45,-533.85,-45.5,-528.4,-44.55,-523.45,-43.3,-518.15,-41.65,-514.45,-40.7,-510.75,-39.35,-505.4,-37.3,-501.15,-35.65,-496.9,-33.75,-494.3,-31,-493.9,-27.15,-497.9,-25.8,-503.9,-27.45,-509.25,-29.65,-514.3,-31.7,-518.7,-33.05,-522.5,-33.75,-527.85,-34.95,-532.35,-36.2,-537.3,-37.3,-544.15,-38.95,-548.8,-39.75,-554.1,-40.15,-558.8,-40.85,-563.3,-41.4,-570.4,-41.65,-574.65,-41.95,-578.5,-42.2,-582.6,-42.35,-590.8,-43.05,-599.85,-42.9,-604.5,-42.35,-609.7,-41.8,-614.45,-41.25,-620.5,-40.3,-625.85,-39.6,-632.4,-39.2,-638.55,-38.5,-642.95,-37.7,-648.7,-36.45,-652.8,-36.05,-657.15,-35.65,-662.5,-35.5,-832.35,165.95,-830.5,159.15,-829.9,154.65,-828,151.6,-825.85,147.8,-823,145.05,-819.55,142.95,-814.25,141.05,-804.9,140.7,-810.35,139.85,-800.95,142.45,-797.75,144.85,-794.7,149.45,-793.6,153.7,-793.4,158.95,-793.4,162.5,-793.5,166.3,-794.45,171.4,-795.65,175.4,-797.75,178.85,-800.95,181.8,-805.35,183.35,-810,183.8,-814,183.95,-819.1,183.7,-823.95,182.3,-827.3,180.05,-829.3,176.95,-831.8,171,-804.65,92.35,-804.65,83.4,-804.9,75.05,-804.65,65.25,-801.85,59.4,-799.9,52.7,-797.35,47.1,-794.3,39.85,-792.35,34.8,-787.3,24.75,-790.15,29.8,-783.8,19.95,-779.4,14.6,-775.25,9.6,-771.7,4.6,-768.15,-0.45,-764.3,-9,-759.6,-16.1,-754.9,-20.5,-751.35,-24.65,-743.35,-29.65,-735.7,-32.05,-728.3,-35.3,-722.1,-37.65,-715.6,-40,-708.8,-41.5,-703.2,-41.8,-697.6,-41.8,-691.1,-40.6,-685.2,-36.75,-679,-29.95,-677.2,-23.75,-676.35,-17.25,-677.2,-10.5,-679.3,-2.5,-681.35,2.8,-684.3,10.2,-687.25,17,-688.75,23.75,-694.95,32.65,-699.95,38.25,-704.7,42.35,-708.8,47.1,-713.85,51.25,-719.75,58,-723.6,61.85,-729.8,68.65,-733.3,73.4,-736.85,77.8,-741.6,85.5,-743.05,91.7,-745.7,99.35,-747.5,105.25,-802.75,99.75,-802.75,104.6,-801.3,108.55,-798.25,115.7,-796.6,118.9,-794.4,122.25,-791.55,124.55,-786.55,126.95,-780.4,128.1,-776.85,128.25,-773.05,128.25,-768.85,126.65,-765.85,124.35,-762.2,120.6,-759.55,117.85,-756.65,115.05,-751.6,109.8],"uvs":[0,0.72173,0.00828,0.781,0.03671,0.84449,0.07726,0.88885,0.12768,0.94326,0.16137,0.96407,0.23579,0.98949,0.32575,1.00006,0.45343,1.00006,0.66421,1,0.79607,0.99423,0.86288,0.9808,0.91037,0.95447,0.95786,0.91492,0.97291,0.8954,0.99306,0.85921,0.9995,0.82912,1,0.78787,1,0.71485,0.9852,0.65201,0.96672,0.59877,0.9459,0.55279,0.92283,0.50558,0.89816,0.46556,0.87232,0.41991,0.84941,0.369,0.82885,0.30214,0.82249,0.25376,0.81614,0.20713,0.80861,0.14345,0.78913,0.1024,0.75577,0.05979,0.70426,0.02153,0.65903,0.00584,0.61037,0,0.48478,0,0.44774,0.00979,0.40945,0.02503,0.37559,0.04475,0.34833,0.0677,0.32901,0.09617,0.31279,0.13158,0.30418,0.15603,0.29674,0.17983,0.2893,0.20532,0.27935,0.23547,0.26697,0.27866,0.24306,0.319,0.21814,0.35253,0.1857,0.37977,0.14507,0.42004,0.09164,0.48067,0.06329,0.51446,0.03528,0.54643,0.00962,0.58262,0,0.64176,0.35242,0.42425,0.35518,0.41946,0.36204,0.41842,0.37007,0.41732,0.38127,0.41608,0.38788,0.41556,0.39749,0.41414,0.40393,0.41329,0.4158,0.41167,0.42266,0.41167,0.43278,0.41115,0.43988,0.41115,0.44741,0.41096,0.45401,0.41077,0.4602,0.41044,0.46756,0.41005,0.47575,0.40992,0.48537,0.40992,0.4964,0.41044,0.50393,0.41057,0.51396,0.41057,0.5204,0.41077,0.52751,0.41115,0.53896,0.41219,0.54607,0.41291,0.55268,0.41381,0.55886,0.41433,0.56522,0.41576,0.57216,0.41699,0.58127,0.41822,0.58955,0.41984,0.59841,0.42198,0.6046,0.42322,0.61079,0.42497,0.61973,0.42763,0.62684,0.42977,0.63395,0.43223,0.63829,0.4358,0.63896,0.44079,0.63227,0.44254,0.62224,0.4404,0.61329,0.43755,0.60485,0.43489,0.59749,0.43314,0.59114,0.43223,0.58219,0.43067,0.57467,0.42905,0.56639,0.42763,0.55493,0.42549,0.54716,0.42445,0.53829,0.42393,0.53043,0.42302,0.52291,0.42231,0.51104,0.42198,0.50393,0.4216,0.49749,0.42127,0.49064,0.42108,0.47692,0.42017,0.46179,0.42036,0.45401,0.42108,0.44532,0.42179,0.43737,0.4225,0.42726,0.42374,0.41831,0.42464,0.40736,0.42516,0.39707,0.42607,0.38972,0.42711,0.3801,0.42873,0.37324,0.42925,0.36597,0.42977,0.35702,0.42996,0.07299,0.69125,0.07609,0.68243,0.07709,0.67659,0.08027,0.67263,0.08386,0.6677,0.08863,0.66414,0.0944,0.66141,0.10326,0.65895,0.1189,0.6585,0.10978,0.65739,0.1255,0.66077,0.13085,0.66388,0.13595,0.66984,0.13779,0.67536,0.13813,0.68217,0.13813,0.68677,0.13796,0.6917,0.13637,0.69831,0.13436,0.7035,0.13085,0.70798,0.1255,0.7118,0.11814,0.71381,0.11037,0.7144,0.10368,0.71459,0.09515,0.71427,0.08704,0.71245,0.08144,0.70953,0.07809,0.70551,0.07391,0.6978,0.11931,0.59578,0.11931,0.58418,0.1189,0.57335,0.11931,0.56064,0.124,0.55305,0.12726,0.54436,0.13152,0.53709,0.13662,0.52769,0.13988,0.52114,0.14833,0.50811,0.14356,0.51466,0.15418,0.50188,0.16154,0.49494,0.16848,0.48846,0.17441,0.48197,0.18035,0.47542,0.18679,0.46433,0.19465,0.45512,0.20251,0.44942,0.20844,0.44403,0.22182,0.43755,0.23462,0.43444,0.24699,0.43022,0.25736,0.42717,0.26823,0.42412,0.2796,0.42218,0.28896,0.42179,0.29833,0.42179,0.3092,0.42335,0.31906,0.42834,0.32943,0.43716,0.33244,0.4452,0.33386,0.45363,0.33244,0.46239,0.32893,0.47276,0.3255,0.47964,0.32057,0.48923,0.31564,0.49805,0.31313,0.50681,0.30276,0.51835,0.2944,0.52562,0.28645,0.53093,0.2796,0.53709,0.27115,0.54248,0.26129,0.55123,0.25485,0.55623,0.24448,0.56505,0.23863,0.57121,0.23269,0.57691,0.22475,0.5869,0.22232,0.59494,0.21789,0.60486,0.21488,0.61252,0.12249,0.60538,0.12249,0.61167,0.12492,0.6168,0.13002,0.62607,0.13278,0.63022,0.13645,0.63457,0.14122,0.63755,0.14958,0.64066,0.15987,0.64215,0.1658,0.64235,0.17216,0.64235,0.17918,0.64027,0.1842,0.63729,0.1903,0.63243,0.19473,0.62886,0.19958,0.62523,0.20803,0.61842],"triangles":[10,12,14,9,10,17,17,10,16,10,14,16,9,17,18,19,9,18,14,15,16,12,13,14,95,9,19,20,95,19,21,95,20,10,11,12,94,95,21,22,94,21,95,196,9,196,8,9,23,94,22,196,208,8,24,94,23,198,208,196,195,196,95,25,93,24,93,94,24,96,195,95,26,92,25,92,93,25,27,88,26,88,89,26,89,90,26,90,91,26,91,92,26,28,82,27,82,85,27,85,86,27,86,88,27,34,41,28,41,42,28,78,79,28,42,78,28,29,34,28,79,80,28,80,82,28,30,34,29,42,43,78,86,87,88,31,34,30,43,77,78,35,41,34,40,41,36,36,41,35,43,76,77,103,194,101,194,195,101,101,195,96,32,33,31,33,34,31,38,40,37,37,40,36,208,225,8,44,73,74,44,74,75,44,75,76,43,44,76,109,194,106,106,194,103,82,83,84,82,84,85,97,100,96,100,101,96,225,224,8,145,7,8,224,145,8,44,45,72,44,72,73,112,194,111,111,194,110,110,194,109,107,109,106,80,81,82,102,103,101,200,208,198,45,71,72,98,100,97,115,194,112,104,106,103,99,100,98,93,95,94,92,95,93,39,40,38,96,95,92,91,96,92,222,145,224,116,194,115,45,70,71,108,109,107,90,97,96,90,96,91,105,106,104,89,98,97,89,97,90,45,68,69,45,69,70,88,99,98,88,98,89,117,194,116,45,67,68,113,115,112,87,99,88,118,194,117,45,66,67,86,100,87,87,100,99,145,146,7,192,194,118,45,46,66,101,100,86,85,101,86,114,115,113,102,101,85,84,102,85,83,103,84,84,103,102,221,145,222,46,64,66,104,103,83,82,104,83,207,208,200,119,191,118,191,192,118,81,105,104,81,104,82,80,105,81,146,6,7,64,65,66,79,106,80,80,106,105,78,107,79,79,107,106,201,207,200,77,108,78,78,108,107,190,191,119,76,109,77,77,109,108,144,145,221,46,63,64,120,190,119,75,110,109,75,109,76,206,207,201,46,62,63,74,111,75,75,111,110,223,222,224,146,5,6,203,206,201,121,190,120,73,112,74,74,112,111,73,113,112,122,190,121,46,60,62,72,113,73,146,4,5,72,71,113,71,114,113,147,4,146,46,59,60,189,190,123,123,190,122,60,61,62,70,114,71,147,3,4,69,115,114,69,114,70,202,203,201,47,58,59,46,47,59,69,68,115,68,116,115,67,117,116,67,116,68,47,57,58,66,118,117,66,117,67,193,194,192,65,118,66,124,189,123,64,119,65,65,119,118,63,120,64,64,120,119,188,189,124,47,183,184,47,184,57,125,188,124,63,62,120,62,121,120,197,198,196,199,200,198,61,122,121,61,121,62,126,188,125,61,60,122,60,123,122,60,59,123,59,124,123,187,188,126,58,125,59,59,125,124,143,144,220,220,144,221,47,48,182,47,182,183,56,126,58,57,56,58,58,126,125,184,185,57,56,186,126,186,187,126,204,206,203,185,56,57,185,186,56,48,181,182,182,189,188,187,182,188,185,183,187,183,182,187,186,185,187,181,190,189,182,181,189,180,179,191,180,191,190,181,180,190,184,183,185,179,178,192,179,192,191,177,193,192,178,177,192,48,180,181,174,196,195,174,195,193,177,174,193,195,194,193,174,197,196,174,172,197,172,171,197,148,3,147,205,206,204,199,198,197,171,199,197,48,179,180,176,174,177,2,3,148,171,170,199,173,172,174,48,49,179,142,143,220,49,178,179,169,200,199,170,169,199,175,174,176,169,168,201,169,201,200,49,177,178,167,202,201,168,167,201,141,142,220,49,176,177,167,165,202,165,166,202,166,164,202,219,141,220,163,204,203,164,163,203,164,203,202,163,162,204,49,175,176,161,160,205,161,205,204,162,161,204,149,2,148,140,141,219,49,50,175,160,158,205,157,206,205,158,157,205,157,207,206,209,225,207,156,209,207,157,156,207,225,208,207,209,224,225,150,2,149,209,223,224,50,173,174,50,174,175,1,2,150,211,212,222,211,222,223,209,211,223,218,140,219,139,140,218,218,221,222,217,218,222,212,217,222,50,172,173,213,216,217,212,213,217,218,220,221,217,139,218,218,219,220,50,171,172,213,215,216,50,51,170,50,170,171,151,1,150,159,158,160,51,169,170,51,168,169,216,138,217,138,139,217,213,214,215,51,167,168,209,210,211,215,137,216,137,138,216,51,165,167,51,166,165,214,135,215,135,137,215,51,164,166,52,163,164,51,52,164,152,1,151,213,136,214,136,135,214,128,143,142,130,128,142,134,133,141,130,142,141,133,130,141,139,137,140,137,134,140,134,141,140,52,162,163,149,144,143,128,149,143,128,150,149,135,134,137,148,145,144,149,148,144,138,137,139,148,147,146,212,136,213,148,146,145,132,130,133,52,161,162,211,136,212,155,151,150,128,155,150,136,134,135,133,134,211,134,136,211,52,160,161,127,155,128,131,130,132,155,154,151,210,133,211,52,159,160,52,53,159,55,133,210,156,54,210,54,55,210,156,210,209,55,132,133,159,53,158,54,156,157,158,53,157,53,54,157,153,1,152,154,152,151,0,1,153,129,128,130,154,153,152,55,131,132,55,130,131,154,0,153,55,129,130,155,0,154,129,55,128,55,127,128,0,155,127,55,0,127],"weights":[1,1,1,1,1,1,1,1,1,1,1,1,1,1,1,1,1,1,1,1,1,1,1,1,1,1,1,1,1,1,1,1,1,1,1,1,1,1,1,1,1,1,1,1,1,1,1,1,1,1,1,1,1,1,1,1,1,1,1,1,1,1,1,1,1,1,1,1,1,1,1,1,1,23,1,1,23,1,1,23,1,1,23,1,1,23,1,1,23,1,1,23,1,1,23,1,1,23,1,1,23,1,1,23,1,1,23,1,1,23,1,1,23,1,1,23,1,1,23,1,1,23,1,1,23,1,1,23,1,1,23,1,1,23,1,2,1,0.362091,23,0.637909,2,1,0.418142,23,0.581858,2,1,0.466856,23,0.533144,2,1,0.490857,23,0.509143,2,1,0.501021,23,0.498979,1,1,1,1,1,1,1,1,1,1,1,1,1,1,1,1,1,1,2,1,0.543104,23,0.456896,2,1,0.537982,23,0.462018,2,1,0.53944,23,0.46056,2,1,0.541451,23,0.458549,2,1,0.54521,23,0.45479,2,1,0.548249,23,0.451751,2,1,0.551391,23,0.448609,2,1,0.553971,23,0.446029,2,1,0.558708,23,0.441292,2,1,0.566896,23,0.433104,2,1,0.579047,23,0.420953,2,1,0.593873,23,0.406127,2,1,0.612435,23,0.387565,2,1,0.633248,23,0.366752,2,1,0.653678,23,0.346322,2,1,0.677204,23,0.322796,2,1,0.697012,23,0.302988,2,1,0.659894,23,0.340106,2,1,0.584569,23,0.415431,2,1,0.538965,23,0.461035,2,1,0.504621,23,0.495379,2,1,0.496787,23,0.503213,2,1,0.493847,23,0.506153,2,1,0.494754,23,0.505246,2,1,0.495619,23,0.504381,2,1,0.497406,23,0.502594,2,1,0.497274,23,0.502726,2,1,0.50033,23,0.49967,2,1,0.501799,23,0.498201,2,1,0.502188,23,0.497812,2,1,0.503466,23,0.496534,2,1,0.505232,23,0.494768,2,1,0.505844,23,0.494156,2,1,0.507274,23,0.492726,2,1,0.509313,23,0.490687,2,1,0.510795,23,0.489205,2,1,0.512608,23,0.487392,2,1,0.51661,23,0.48339,2,1,0.523972,23,0.476028,2,1,0.529628,23,0.470372,2,1,0.530623,23,0.469377,2,1,0.529764,23,0.470236,2,1,0.528918,23,0.471082,2,1,0.529412,23,0.470588,2,1,0.53146,23,0.46854,2,1,0.534169,23,0.465831,2,1,0.53603,23,0.46397,2,1,0.539904,23,0.460096,2,1,0.54659,23,0.45341,2,1,0.555075,23,0.444925,2,1,0.572599,23,0.427401,2,1,0.591577,23,0.408423,2,1,0.618883,23,0.381117,2,1,0.697309,23,0.302691,2,1,0.766443,23,0.233557,2,1,0.845129,23,0.154871,2,1,0.933019,23,0.066981,2,1,0.985199,23,0.014801,2,1,0.841962,23,0.158038,2,1,0.773435,23,0.226565,2,1,0.714795,23,0.285205,2,1,0.676069,23,0.323931,2,1,0.642122,23,0.357878,2,1,0.619841,23,0.380159,2,1,0.597979,23,0.402021,2,1,0.584011,23,0.415989,2,1,0.576989,23,0.423011,2,1,0.569986,23,0.430014,2,1,0.564567,23,0.435433,2,1,0.559551,23,0.440449,2,1,0.553608,23,0.446392,1,1,1,1,1,1,1,1,1,1,1,1,1,1,1,1,1,1,1,1,1,1,1,1,1,1,1,1,1,1,1,1,1,1,1,1,1,1,1,1,1,1,1,1,1,1,1,1,1,1,1,1,1,1,1,1,1,1,1,1,1,1,1,1,1,1,1,1,1,1,1,1,1,1,1,1,1,1,1,1,1,1,1,1,1,1,1,1,1,1,1,1,1,1,1,1,1,1,1,1,1,1,1,1,1,1,1,1,1,1,1,1,1,1,1,1,1,1,1,1,1,1,1,1,1,1,1,1,1,2,1,0.538279,23,0.461721,2,1,0.535449,23,0.464551,2,1,0.530128,23,0.469872,2,1,0.526385,23,0.473615,2,1,0.524596,23,0.475404,2,1,0.522755,23,0.477245,2,1,0.521407,23,0.478593,2,1,0.521573,23,0.478427,2,1,0.521184,23,0.478816,2,1,0.521105,23,0.478895,2,1,0.52109,23,0.47891,2,1,0.52165,23,0.47835,2,1,0.522863,23,0.477137,2,1,0.524483,23,0.475517,2,1,0.527833,23,0.472167,2,1,0.534559,23,0.465441,2,1,0.548137,23,0.451863,2,1,0.560655,23,0.439345,2,1,0.574574,23,0.425426,2,1,0.587843,23,0.412157,2,1,0.602228,23,0.397772,2,1,0.610513,23,0.389487,2,1,0.621517,23,0.378483,2,1,0.630707,23,0.369293,2,1,0.642106,23,0.357894,2,1,0.648263,23,0.351737,2,1,0.649761,23,0.350239,2,1,0.648857,23,0.351143,2,1,0.650257,23,0.349743,2,1,0.648994,23,0.351006,2,1,0.650703,23,0.349297,2,1,0.650872,23,0.349128,2,1,0.652024,23,0.347976,1,1,1,1,1,1,1,1,1,1,1,1,1,1,1,1,1,1,1,1,1,1,1,1,1,1,1,1,1,1,1,1,1,1,1,1,1,1,1,1,1,1,1,1,1,1,1,1,1,1,1,1,1,1,1,1,1,1,1,1,1,1,1,1,1,1,1,1,1],"slotPose":[1,0,0,1,0,0],"bonePose":[1,-0.022163,-0.999754,0.999754,-0.022163,-581.3,287.5,23,0.162,-0.986791,0.986791,0.162,-585.45,-64.8],"edges":[0,1,1,2,2,3,3,4,4,5,5,6,6,7,7,8,8,9,9,10,10,11,11,12,12,13,13,14,14,15,15,16,16,17,17,18,18,19,19,20,20,21,21,22,22,23,23,24,24,25,25,26,26,27,27,28,28,29,29,30,30,31,31,32,32,33,33,34,34,35,35,36,36,37,37,38,38,39,39,40,40,41,41,42,42,43,43,44,44,45,45,46,46,47,47,48,48,49,49,50,50,51,51,52,52,53,53,54,54,55,55,0],"userEdges":[62,63,64,65,66,67,67,68,70,71,74,75,76,77,82,83,83,84,85,86,90,91,93,94,94,95,98,99,100,101,102,103,103,104,104,105,105,106,109,110,110,111,111,112,117,118,118,119,119,120,120,121,121,122,122,123,123,124,124,125,131,132,137,138,140,141,141,142,143,144,144,145,145,146,147,148,148,149,149,150,150,151,152,153,153,154,161,162,168,169,170,171,173,174,174,175,176,177,177,178,180,181,188,189,190,191,194,195,196,197,197,198,200,201,206,207,207,208,214,215,215,216,216,217,222,223]}]},{"name":"eye_11_r_4","display":[{"name":"main2_ready/eye_11_r_4","transform":{"x":-22.17,"y":2.64,"skX":86.17,"skY":86.17}},{"name":"main2_ready/eye_11_r_1","transform":{"x":-22.74,"y":1.67,"skX":86.17,"skY":86.17}},{"name":"main2_ready/eye_11_r_2","transform":{"x":-22.67,"y":2.67,"skX":86.17,"skY":86.17}},{"name":"main2_ready/eye_11_r_3","transform":{"x":-22.67,"y":2.67,"skX":86.17,"skY":86.17}}]},{"name":"eye_obvodka","display":[{"name":"main2_ready/eye_obvodka","transform":{"x":22.65,"y":142.29,"skX":88.13,"skY":88.13}}]},{"name":"Layer1","display":[{"name":"main2_ready/Layer1","transform":{"x":12.14,"y":-1.38,"skX":-28.85,"skY":-28.85}}]},{"name":"splash","display":[{"name":"main2_ready/splash","transform":{"x":16.03,"y":13.48,"skX":0.29,"skY":0.29}}]},{"name":"teee","display":[{"name":"teee","transform":{"x":28.96,"y":-19.44,"skX":-18.88,"skY":-18.88}}]},{"name":"eye_11_l_1","display":[{"name":"main2_ready/eye_11_l_1","transform":{"x":-22.7,"y":-5.76,"skX":82.83,"skY":82.83}},{"name":"main2_ready/eye_11_l_4","transform":{"x":-22.01,"y":-4.33,"skX":82.83,"skY":82.83}},{"name":"main2_ready/eye_11_l_3","transform":{"x":-22.51,"y":-4.27,"skX":82.83,"skY":82.83}},{"name":"main2_ready/eye_11_l_2","transform":{"x":-22.51,"y":-4.27,"skX":82.83,"skY":82.83}}]},{"name":"bak_ef1","display":[{"name":"main2_ready/bak_ef1","transform":{"x":-416.75,"y":-898.5,"skX":90.34,"skY":90.34}}]},{"name":"star_big6","display":[{"name":"main2_ready/star_big6","transform":{"x":3.92,"y":2.79,"skX":90.55,"skY":90.55}}]}]}],"animation":[{"duration":96,"playTimes":0,"name":"animtion0","bone":[{"name":"Paint_Layer_50","translateFrame":[{"duration":48,"tweenEasing":0},{"duration":48,"tweenEasing":0,"y":-30.57},{"duration":0}]},{"name":"Paint_Layer_23","scaleFrame":[{"duration":35,"tweenEasing":0},{"duration":10,"tweenEasing":0,"x":1.05,"y":1.05},{"duration":10,"tweenEasing":0,"x":1.07,"y":1.06},{"duration":41,"tweenEasing":0,"x":1.05,"y":1.05},{"duration":0}]},{"name":"tatti","translateFrame":[{"duration":40,"tweenEasing":0},{"duration":10,"tweenEasing":0,"y":16.42},{"duration":46,"tweenEasing":0,"y":30.73},{"duration":0}],"rotateFrame":[{"duration":40,"tweenEasing":0},{"duration":56,"tweenEasing":0,"rotate":-14.29},{"duration":0}]},{"name":"star_big7","scaleFrame":[{"duration":65},{"duration":3,"tweenEasing":0,"x":0.01,"y":0.01},{"duration":3,"tweenEasing":0},{"duration":25,"x":0.01,"y":0.01}]},{"name":"star_big5","scaleFrame":[{"duration":78,"tweenEasing":0,"x":0.01,"y":0.01},{"duration":4,"tweenEasing":0,"x":0.01,"y":0.01},{"duration":4,"tweenEasing":0},{"duration":10,"x":0.01,"y":0.01}]},{"name":"star_big2","scaleFrame":[{"duration":45},{"duration":5,"tweenEasing":0,"x":0.01,"y":0.01},{"duration":5,"tweenEasing":0},{"duration":41,"x":0.01,"y":0.01}]},{"name":"teee","translateFrame":[{"duration":40,"tweenEasing":0},{"duration":56,"tweenEasing":0,"y":26.91},{"duration":0}],"rotateFrame":[{"duration":40,"tweenEasing":0},{"duration":56,"tweenEasing":0,"rotate":4.28},{"duration":0}]},{"name":"star_big4","scaleFrame":[{"duration":30,"tweenEasing":0,"x":0.01,"y":0.01},{"duration":6,"tweenEasing":0,"x":0.01,"y":0.01},{"duration":5,"tweenEasing":0},{"duration":55,"x":0.01,"y":0.01}]},{"name":"star_big","scaleFrame":[{"duration":12,"tweenEasing":0,"x":0.01,"y":0.01},{"duration":12,"tweenEasing":0},{"duration":72,"x":0.01,"y":0.01}]},{"name":"logo","translateFrame":[{"duration":34,"tweenEasing":0},{"duration":12,"tweenEasing":0,"y":-12.75},{"duration":10,"tweenEasing":0,"y":-17.26},{"duration":40,"tweenEasing":0,"y":-12.75},{"duration":0}],"scaleFrame":[{"duration":34,"tweenEasing":0},{"duration":12,"tweenEasing":0,"y":1.03},{"duration":10,"tweenEasing":0,"y":1.04},{"duration":40,"tweenEasing":0,"y":1.03},{"duration":0}]},{"name":"star_big3","scaleFrame":[{"duration":15,"tweenEasing":0,"x":0.01,"y":0.01},{"duration":8,"tweenEasing":0,"x":0.01,"y":0.01},{"duration":8,"tweenEasing":0},{"duration":65,"x":0.01,"y":0.01}]},{"name":"start","scaleFrame":[{"duration":24,"tweenEasing":0},{"duration":6,"tweenEasing":0,"x":1.04,"y":1.04},{"duration":6,"tweenEasing":0},{"duration":6,"tweenEasing":0,"x":1.04,"y":1.04},{"duration":24,"tweenEasing":0},{"duration":6,"tweenEasing":0},{"duration":6,"tweenEasing":0,"x":1.04,"y":1.04},{"duration":6,"tweenEasing":0},{"duration":6,"tweenEasing":0,"x":1.04,"y":1.04},{"duration":6}]},{"name":"Paint_Layer_45","translateFrame":[{"duration":48,"tweenEasing":0},{"duration":48,"tweenEasing":0,"x":20.57,"y":28.88},{"duration":0}]},{"name":"star_big6","scaleFrame":[{"duration":43},{"duration":7,"tweenEasing":0,"x":0.01,"y":0.01},{"duration":7,"tweenEasing":0},{"duration":39,"x":0.01,"y":0.01}]},{"name":"Paint_Layer_54","translateFrame":[{"duration":24,"tweenEasing":0},{"duration":24,"tweenEasing":0,"x":-5.23,"y":8.29},{"duration":24,"tweenEasing":0},{"duration":24,"tweenEasing":0,"x":-5.23,"y":8.29},{"duration":0}],"rotateFrame":[{"duration":24,"tweenEasing":0},{"duration":24,"tweenEasing":0,"rotate":-21.83},{"duration":24,"tweenEasing":0},{"duration":24,"tweenEasing":0,"rotate":-21.83},{"duration":0}],"scaleFrame":[{"duration":24,"tweenEasing":0},{"duration":24,"tweenEasing":0,"x":1.07},{"duration":24,"tweenEasing":0},{"duration":24,"tweenEasing":0,"x":1.07},{"duration":0}]},{"name":"splash","rotateFrame":[{"duration":24,"tweenEasing":0},{"duration":24,"tweenEasing":0,"rotate":-89.35},{"duration":24,"tweenEasing":0,"rotate":-179.57},{"duration":24,"tweenEasing":0,"rotate":89.94},{"duration":0}],"scaleFrame":[{"duration":24,"tweenEasing":0},{"duration":24,"tweenEasing":0,"x":0.69,"y":0.69},{"duration":24,"tweenEasing":0},{"duration":24,"tweenEasing":0,"x":0.69,"y":0.69},{"duration":0}]},{"name":"Layer2","rotateFrame":[{"duration":24,"tweenEasing":0},{"duration":24,"tweenEasing":0,"rotate":-14.02},{"duration":24,"tweenEasing":0},{"duration":24,"tweenEasing":0,"rotate":-14.02},{"duration":0}],"scaleFrame":[{"duration":24,"tweenEasing":0},{"duration":24,"tweenEasing":0,"x":1.13},{"duration":24,"tweenEasing":0},{"duration":24,"tweenEasing":0,"x":1.13},{"duration":0}]},{"name":"Layer1","rotateFrame":[{"duration":24,"tweenEasing":0},{"duration":24,"tweenEasing":0,"rotate":-60.78},{"duration":24,"tweenEasing":0},{"duration":24,"tweenEasing":0,"rotate":-60.78},{"duration":0}],"scaleFrame":[{"duration":24,"tweenEasing":0},{"duration":24,"tweenEasing":0,"x":1.34},{"duration":24,"tweenEasing":0},{"duration":24,"tweenEasing":0,"x":1.34},{"duration":0}]},{"name":"Paint_Layer_501","translateFrame":[{"duration":48,"tweenEasing":0},{"duration":48,"tweenEasing":0,"x":16.84,"y":0.37},{"duration":0}],"rotateFrame":[{"duration":48,"tweenEasing":0},{"duration":48,"tweenEasing":0,"rotate":1.3},{"duration":0}]},{"name":"Paint_Layer_41","rotateFrame":[{"duration":24,"tweenEasing":0},{"duration":24,"tweenEasing":0,"rotate":-0.57},{"duration":24,"tweenEasing":0},{"duration":24,"tweenEasing":0,"rotate":-1.91},{"duration":0}]},{"name":"Paint_Layer_42","translateFrame":[{"duration":12,"tweenEasing":0},{"duration":12,"tweenEasing":0,"x":15.73,"y":4.03},{"duration":12,"tweenEasing":0},{"duration":12,"tweenEasing":0,"x":15.73,"y":4.03},{"duration":12,"tweenEasing":0},{"duration":12,"tweenEasing":0,"x":15.73,"y":4.03},{"duration":12,"tweenEasing":0},{"duration":12,"tweenEasing":0,"x":15.73,"y":4.03},{"duration":0}]},{"name":"flwr_2","rotateFrame":[{"duration":24,"tweenEasing":0,"rotate":-30.91},{"duration":24,"tweenEasing":0,"rotate":-17.27},{"duration":24,"tweenEasing":0,"rotate":-30.91},{"duration":24,"tweenEasing":0,"rotate":-17.27},{"duration":0,"rotate":-30.91}],"scaleFrame":[{"duration":24,"tweenEasing":0},{"duration":24,"tweenEasing":0,"x":1.2},{"duration":24,"tweenEasing":0},{"duration":24,"tweenEasing":0,"x":1.2},{"duration":0}]},{"name":"flwr_1","rotateFrame":[{"duration":24,"tweenEasing":0,"rotate":140.91},{"duration":24,"tweenEasing":0,"rotate":161.5},{"duration":24,"tweenEasing":0,"rotate":140.91},{"duration":24,"tweenEasing":0,"rotate":161.5},{"duration":0,"rotate":140.91}],"scaleFrame":[{"duration":24,"tweenEasing":0},{"duration":24,"tweenEasing":0,"x":1.13},{"duration":24,"tweenEasing":0},{"duration":24,"tweenEasing":0,"x":1.13},{"duration":0}]},{"name":"mouth","scaleFrame":[{"duration":24,"tweenEasing":0},{"duration":24,"tweenEasing":0,"x":0.83},{"duration":24,"tweenEasing":0},{"duration":24,"tweenEasing":0,"x":0.83},{"duration":0}]},{"name":"Paint_Layer_411","translateFrame":[{"duration":48,"tweenEasing":0},{"duration":24,"tweenEasing":0},{"duration":24,"tweenEasing":0,"x":-18.61,"y":2.31},{"duration":0}],"rotateFrame":[{"duration":24,"tweenEasing":0},{"duration":24,"tweenEasing":0,"rotate":12.82},{"duration":24,"tweenEasing":0},{"duration":24,"tweenEasing":0,"rotate":-1.76},{"duration":0}]},{"name":"Paint_Layer_39","translateFrame":[{"duration":24,"tweenEasing":0},{"duration":24,"tweenEasing":0,"x":-1.27,"y":6.15},{"duration":24,"tweenEasing":0},{"duration":24,"tweenEasing":0,"x":-0.1,"y":2.03},{"duration":0}]},{"name":"eye_r","scaleFrame":[{"duration":10},{"duration":5,"tweenEasing":0},{"duration":5,"tweenEasing":0,"x":0.68},{"duration":76}]},{"name":"eye_l","scaleFrame":[{"duration":10},{"duration":5,"tweenEasing":0},{"duration":5,"tweenEasing":0,"x":0.37},{"duration":76}]},{"name":"Paint_Layer_412","translateFrame":[{"duration":48,"tweenEasing":0},{"duration":24,"tweenEasing":0},{"duration":24,"tweenEasing":0,"x":3.13,"y":1},{"duration":0}],"rotateFrame":[{"duration":24,"tweenEasing":0},{"duration":24,"tweenEasing":0,"rotate":18.05},{"duration":24,"tweenEasing":0},{"duration":24,"tweenEasing":0,"rotate":-8.66},{"duration":0}]}],"slot":[{"name":"bak_ef1","colorFrame":[{"duration":24,"tweenEasing":0},{"duration":24,"tweenEasing":0,"value":{"aM":54}},{"duration":24,"tweenEasing":0},{"duration":24,"tweenEasing":0,"value":{"aM":54}},{"duration":0}]},{"name":"bak_ef2","colorFrame":[{"duration":48,"tweenEasing":0,"value":{"aM":0}},{"duration":48,"tweenEasing":0},{"duration":0,"value":{"aM":0}}]},{"name":"stars_normal","colorFrame":[{"duration":24,"tweenEasing":0,"value":{"aM":30}},{"duration":24,"tweenEasing":0},{"duration":24,"tweenEasing":0,"value":{"aM":30}},{"duration":24,"tweenEasing":0},{"duration":0,"value":{"aM":30}}]},{"name":"stars_small","colorFrame":[{"duration":24,"tweenEasing":0,"value":{"aM":75}},{"duration":24,"tweenEasing":0,"value":{"aM":23}},{"duration":24,"tweenEasing":0,"value":{"aM":8}},{"duration":24,"tweenEasing":0},{"duration":0,"value":{"aM":75}}]},{"name":"stars_small2","colorFrame":[{"duration":24,"tweenEasing":0,"value":{"aM":50}},{"duration":24,"tweenEasing":0,"value":{"aM":12}},{"duration":24,"tweenEasing":0},{"duration":24,"tweenEasing":0,"value":{"aM":12}},{"duration":0,"value":{"aM":50}}]},{"name":"stars_small3","colorFrame":[{"duration":12,"tweenEasing":0,"value":{"aM":0}},{"duration":12,"tweenEasing":0},{"duration":12,"tweenEasing":0,"value":{"aM":0}},{"duration":12,"tweenEasing":0},{"duration":12,"tweenEasing":0,"value":{"aM":0}},{"duration":12,"tweenEasing":0},{"duration":12,"tweenEasing":0,"value":{"aM":0}},{"duration":12,"tweenEasing":0},{"duration":0,"value":{"aM":0}}]},{"name":"star_big","colorFrame":[{"duration":12,"tweenEasing":0,"value":{"aM":0}},{"duration":12,"tweenEasing":0},{"duration":72,"value":{"aM":0}}]},{"name":"star_big2","colorFrame":[{"duration":45,"tweenEasing":0,"value":{"aM":0}},{"duration":5,"tweenEasing":0,"value":{"aM":0}},{"duration":5,"tweenEasing":0},{"duration":41,"value":{"aM":0}}]},{"name":"star_big3","colorFrame":[{"duration":15,"tweenEasing":0,"value":{"aM":0}},{"duration":8,"tweenEasing":0,"value":{"aM":0}},{"duration":8,"tweenEasing":0},{"duration":65,"value":{"aM":0}}]},{"name":"star_big4","colorFrame":[{"duration":30},{"duration":6,"tweenEasing":0,"value":{"aM":0}},{"duration":5,"tweenEasing":0,"value":{"aM":81}},{"duration":55,"value":{"aM":0}}]},{"name":"star_big5","colorFrame":[{"duration":78,"tweenEasing":0,"value":{"aM":0}},{"duration":4,"tweenEasing":0,"value":{"aM":0}},{"duration":4,"tweenEasing":0},{"duration":10,"value":{"aM":0}}]},{"name":"star_big6","colorFrame":[{"duration":43,"tweenEasing":0,"value":{"aM":0}},{"duration":7,"tweenEasing":0,"value":{"aM":0}},{"duration":7,"tweenEasing":0},{"duration":39,"value":{"aM":0}}]},{"name":"star_big7","colorFrame":[{"duration":65,"tweenEasing":0,"value":{"aM":0}},{"duration":3,"tweenEasing":0,"value":{"aM":0}},{"duration":3,"tweenEasing":0},{"duration":25,"value":{"aM":0}}]},{"name":"eye_11_r_4","displayFrame":[{"duration":62,"value":-1},{"duration":2,"value":1},{"duration":2,"value":2},{"duration":2,"value":3},{"duration":4},{"duration":2,"value":3},{"duration":2,"value":2},{"duration":2,"value":1},{"duration":18,"value":-1}]},{"name":"eye_11_l_1","displayFrame":[{"duration":42,"value":-1},{"duration":2},{"duration":2,"value":3},{"duration":2,"value":2},{"duration":4,"value":1},{"duration":2,"value":2},{"duration":2,"value":3},{"duration":2},{"duration":38,"value":-1}]},{"name":"splash","colorFrame":[{"duration":24,"tweenEasing":0,"value":{"aM":21}},{"duration":24,"tweenEasing":0,"value":{"aM":83}},{"duration":24,"tweenEasing":0,"value":{"aM":21}},{"duration":24,"tweenEasing":0,"value":{"aM":83}},{"duration":0,"value":{"aM":21}}]}]}],"defaultActions":[{"gotoAndPlay":"animtion0"}]}]}